<?xml version="1.0"?>
<opencv_storage>
<stage12>
  <maxWeakCount>6</maxWeakCount>
  <stageThreshold>-6.4194899797439575e-01</stageThreshold>
  <weakClassifiers>
    <_>
      <internalNodes>
        0 -1 93892 7.6323386747390032e-04</internalNodes>
      <leafValues>
        -7.2693729400634766e-01 5.6712776422500610e-01</leafValues></_>
    <_>
      <internalNodes>
        0 -1 109269 -2.1052319789305329e-04</internalNodes>
      <leafValues>
        4.2112734913825989e-01 -7.2073543071746826e-01</leafValues></_>
    <_>
      <internalNodes>
        0 -1 43031 -7.2786025702953339e-03</internalNodes>
      <leafValues>
        7.1156895160675049e-01 -4.0731933712959290e-01</leafValues></_>
    <_>
      <internalNodes>
        0 -1 109634 -1.3823088374920189e-04</internalNodes>
      <leafValues>
        -7.2286492586135864e-01 3.4222254157066345e-01</leafValues></_>
    <_>
      <internalNodes>
        0 -1 101686 1.9937827892135829e-04</internalNodes>
      <leafValues>
        2.8485196828842163e-01 -7.9880172014236450e-01</leafValues></_>
    <_>
      <internalNodes>
        0 -1 148051 3.2205875031650066e-03</internalNodes>
      <leafValues>
        -5.3291976451873779e-01 4.3208867311477661e-01</leafValues></_></weakClassifiers></stage12>
</opencv_storage>
